encog,BasicNetwork,java,3.4.0,1,1543165941660
[BASIC]
[BASIC:PARAMS]
[BASIC:NETWORK]
beginTraining=0
connectionLimit=0
contextTargetOffset=0,0,0
contextTargetSize=0,0,0
endTraining=2
hasContext=f
inputCount=8
layerCounts=5,6,8
layerFeedCounts=5,5,8
layerContextCount=0,0,0
layerIndex=0,5,11
output=0,0,0,0,0,0,0,0,0,0,1,0,0,0,0,0,0,0,0
outputCount=5
weightIndex=0,30,70
weights=3.4268789238,3.0014667049,-2.689840847,-2.6278308844,2.2452524968,-4.4017407683,-3.8499882414,-4.7124927455,0.8228315325,1.9974901454,-4.4904304617,-0.2170879417,-0.4639101854,-3.370343091,2.3629708664,-0.2048982873,5.6001299365,-4.7244168299,3.6186332152,-1.4814548668,2.2045267791,-3.66388682,-4.9084738696,-1.2785109681,-4.8054236715,2.0712557668,-5.1252087417,0.4574364225,-0.198974427,1.0976723544,4.8940154463,-5.2511635393,-1.8408590609,-2.5284948745,0.7528524604,3.5767619605,-0.7527953962,1.0949878542,0.4551090601,1.8176665101,-3.4150690858,2.8547036254,2.7297075538,1.4911876963,-3.9716058662,-2.3219880336,-0.2893252096,-4.8192296062,1.3728580621,-1.5487710405,0.0180596702,-0.120355664,4.7941206946,1.208437086,-2.5433391617,2.8782973621,2.6405433017,1.6402084673,-0.9413372319,-0.4386638679,0.7501945871,-0.6021070832,-2.2270070745,-2.8642585327,4.0271231893,3.2011411845,-1.3455128023,2.6988627004,-7.2934704473,-0.7160664268
biasActivation=0,1,0
[BASIC:ACTIVATION]
"org.encog.engine.network.activation.ActivationSigmoid"
"org.encog.engine.network.activation.ActivationSigmoid"
"org.encog.engine.network.activation.ActivationLinear"
