encog,BasicNetwork,java,3.4.0,1,1543262761319
[BASIC]
[BASIC:PARAMS]
[BASIC:NETWORK]
beginTraining=0
connectionLimit=0
contextTargetOffset=0,0,0
contextTargetSize=0,0,0
endTraining=2
hasContext=f
inputCount=9
layerCounts=6,9,9
layerFeedCounts=6,8,9
layerContextCount=0,0,0
layerIndex=0,6,15
output=0.3148710039,0.3762425528,0.0001279427,0.0000010883,0.0264744482,0.0022077724,0.0213689237,0.8288016538,0.0000118935,0.0003060299,0.1078402866,0.0286128102,0,0.0000019207,1,1,0,0,1,1,0,1,0,1
outputCount=6
weightIndex=0,54,126
weights=-7.7309743473,1.0523470304,-6.9649201194,-8.0321469575,-9.5916993789,-2.055530385,-4.2884360055,14.0339191918,-0.3887283806,5.7409544401,4.0487722774,-11.8911506771,-7.8120735494,-5.0897786617,2.9890049156,-3.4097300356,-10.7611502195,-3.517922558,6.4963819042,-6.8513476991,0.9193251799,-8.0979241927,6.1035342581,-6.8599464458,1.4872988939,-3.0037769978,-3.8836638661,-0.2332379502,-3.6666191097,1.6560558875,12.2131911362,-7.1738532334,0.2952538809,18.0141938307,2.431986168,-9.9256185646,-6.4653045801,-2.0882748392,9.5957827012,-3.4033317635,-1.6173756372,4.5040427171,-3.1614443898,-11.1250486851,-1.6893280861,-9.4408036721,-2.5563425444,-4.6898196126,8.9238329226,5.8860411427,5.3660460065,-1.984137395,-1.6810555987,-4.5840822454,4.7944406816,-2.2020640471,-6.9726172986,-3.4791065745,-6.3501864684,6.635920017,-1.447073838,9.7155444005,2.6577091686,-0.7022200812,6.8042773614,10.6041268514,2.5463625015,3.1531551211,-8.0116632126,-0.8192631492,8.0542772022,-2.6008763287,-6.0220622061,1.6520420529,5.085228673,-7.4322792193,-1.48880554,3.7879147931,-0.9846248169,-20.6413045257,4.5882617968,3.8497946542,4.3200592333,-11.3758433849,4.5313274101,-12.9606747968,-3.4127087126,-7.133670977,-3.8194638929,3.6217020559,0.611456814,13.0035680417,-15.3036098524,13.8107245585,-18.7449067438,-13.6468269681,0.756424536,0.3321291247,1.4533069724,10.2780020704,-17.7240517243,6.0647933599,0.2150198727,0.1805835657,-2.6700853499,-7.1377804117,-1.7860139671,-7.0606957121,-30.7135434744,-3.0465490792,-21.4294480102,-9.4501412806,-12.6886569177,-14.8252400934,4.957994441,28.0989005158,2.4522213895,-1.4341550437,8.1141577711,-7.1632735892,-14.725891869,-5.2740194402,4.2662513215,8.6613445043,-1.2622154946,-0.3901055617
biasActivation=0,1,0
[BASIC:ACTIVATION]
"org.encog.engine.network.activation.ActivationSigmoid"
"org.encog.engine.network.activation.ActivationSigmoid"
"org.encog.engine.network.activation.ActivationLinear"
