encog,BasicNetwork,java,3.4.0,1,1543262753464
[BASIC]
[BASIC:PARAMS]
[BASIC:NETWORK]
beginTraining=0
connectionLimit=0
contextTargetOffset=0,0,0
contextTargetSize=0,0,0
endTraining=2
hasContext=f
inputCount=8
layerCounts=5,6,8
layerFeedCounts=5,5,8
layerContextCount=0,0,0
layerIndex=0,5,11
output=0.0282264821,0.0802935479,0.0349187976,0.0008648884,0.9277794624,0.0017059535,0.3724034015,0.9100399029,0.9935799566,0.8629745996,1,0,1,0,1,0,0,0,1
outputCount=5
weightIndex=0,30,70
weights=-4.2283628255,2.3623983943,0.6905431567,-3.982408432,-0.714642384,-0.4662763659,-0.4573626929,-2.4471776679,-1.9593591712,4.0143363239,-3.616879489,-0.6104417023,1.4840180618,-4.5699529691,2.24870559,-3.4064908516,0.3471876341,-0.5812574775,3.1145200469,1.9006614134,-4.2539850954,-2.7768239609,0.1557343752,-1.2692728078,-2.5236509391,0.4767183975,0.3631171922,2.2254253104,4.4185824098,-3.9748702292,0.7883569314,-3.9520907893,0.906237702,-3.9284386263,-1.0116630092,-1.1863269156,1.1994704454,1.5086057434,3.2530734725,-0.8470117498,-4.4776841072,1.050397184,2.4217496715,0.8389287669,0.5940941068,-0.7253053556,-1.2247924642,0.6919780691,2.0185199133,2.2255959147,-0.7782417381,1.7794067504,-4.1248884336,-0.6034517418,-3.2103175083,4.6232692559,-1.0377203812,1.8310237549,-0.9106661797,-4.5625737185,1.8850957023,-1.4124033486,-1.1971711685,2.2171404298,-0.5390543173,0.0154850007,0.6787250265,-1.3954264574,-5.7817417981,-0.3924064851
biasActivation=0,1,0
[BASIC:ACTIVATION]
"org.encog.engine.network.activation.ActivationSigmoid"
"org.encog.engine.network.activation.ActivationSigmoid"
"org.encog.engine.network.activation.ActivationLinear"
