encog,BasicNetwork,java,3.4.0,1,1543262151339
[BASIC]
[BASIC:PARAMS]
[BASIC:NETWORK]
beginTraining=0
connectionLimit=0
contextTargetOffset=0,0,0
contextTargetSize=0,0,0
endTraining=2
hasContext=f
inputCount=9
layerCounts=6,9,9
layerFeedCounts=6,8,9
layerContextCount=0,0,0
layerIndex=0,6,15
output=0.0025955638,0.0046940906,0.0026009499,0.0000000004,0.0000295985,0.0002645788,0.9975220588,0.999999999,0.000311423,0.0000059791,0.3440108238,0.0000029141,0.9179749253,0.0008495277,1,1,0,0,1,1,0,1,0,1
outputCount=6
weightIndex=0,54,126
weights=1.6666339818,5.5502872338,10.2750996431,-2.7814284886,-11.4217518154,-1.819179058,-7.8571197008,-10.573500825,-2.0164943303,4.066628111,-7.4453271249,-10.327513242,-4.9693317261,6.7383749412,-8.8739358695,-1.8128927713,-5.4430336134,-2.613957879,5.4571320963,-0.5349613233,-5.0431881881,10.2217605868,-1.155133444,-7.142875369,3.9158215028,5.397131619,-14.0582248441,-2.0696123661,-11.0767377517,6.5247393006,-4.025996321,-7.1129997085,-0.339932841,-2.5646001491,10.100511665,-3.6041511044,-9.3673251865,3.2498235156,9.5536126899,-2.6687382085,11.8930638747,1.3086111745,-0.6855825176,-4.3854036922,-7.7947003098,-7.6205883829,6.6355854798,-3.3266103615,-3.3939198034,-6.9563034682,-1.5831871376,-5.7530213109,5.7024520112,0.3994022261,-0.2569522083,-1.7441078857,-3.0504376847,-5.8051036028,4.5317703263,1.1573282603,4.8401212919,14.9890165987,2.6880104021,2.5728271547,-7.875975579,-2.5944283387,6.5776158228,7.1965218532,-7.4709655223,6.2517748849,-9.3750683146,-1.8664393052,6.0885265651,11.1251276851,-3.3793429067,-12.9762887782,-0.6635474273,2.7457563912,-0.1266378968,-16.1718358013,-0.3960992781,-12.9593409865,5.0609576585,-11.1693642149,-12.0909344777,6.976367875,10.3364776171,15.5837845434,-4.3413449239,-9.5371080934,-0.8273649115,-9.5878517523,26.6002919762,-0.9577543287,6.2333804938,-3.4253722336,-4.6121537165,-4.0698595049,-0.481578705,-6.9193108206,5.0189176685,2.2557269745,-4.2649636849,-4.807033695,1.3540134518,3.6051084933,-1.110225697,-0.3597462262,5.047802888,-2.1384649916,4.008780005,-1.7166487691,-0.316126285,3.2192870633,-3.3351071757,-0.5675595284,2.7352244286,-3.8043561125,6.3003172686,-13.9687022357,6.8593657918,-12.5066653222,-0.5797972407,-3.0260500752,3.6071630162,5.4077255685
biasActivation=0,1,0
[BASIC:ACTIVATION]
"org.encog.engine.network.activation.ActivationSigmoid"
"org.encog.engine.network.activation.ActivationSigmoid"
"org.encog.engine.network.activation.ActivationLinear"
