encog,BasicNetwork,java,3.4.0,1,1543262143208
[BASIC]
[BASIC:PARAMS]
[BASIC:NETWORK]
beginTraining=0
connectionLimit=0
contextTargetOffset=0,0,0
contextTargetSize=0,0,0
endTraining=2
hasContext=f
inputCount=8
layerCounts=5,6,8
layerFeedCounts=5,5,8
layerContextCount=0,0,0
layerIndex=0,5,11
output=0.0474146997,0.0291072015,0.0111387766,0.0008196722,0.9736273653,0.0766740095,0.9971558874,0.0007198955,0.131570277,0.9057909422,1,0,1,0,1,0,0,0,1
outputCount=5
weightIndex=0,30,70
weights=1.7414417531,-4.2834751285,-2.9006831753,-1.3586735566,3.8506236127,-2.1694889796,2.516113164,2.1002947104,-3.1052046656,-1.8245144904,-4.4189458316,-1.5495437516,-3.9612532488,-1.8066431878,2.9406285088,2.6774052716,-1.6948022329,-1.2001389225,2.2333936733,-3.2770872798,3.0586325674,-3.5547279155,-2.430932037,-1.3418515501,-4.8559116521,3.4742554601,-1.8735482062,-1.3367202285,2.0881279536,-1.1975363058,1.6828082958,-1.9117797497,-2.2856413292,-0.7564842109,0.5028573329,0.288470801,6.9372211913,0.1798443944,-3.4869121031,4.7538385908,0.2031753723,2.279638507,-1.0626512639,-3.1625296865,-0.0167043762,-1.173821099,0.438961739,-5.0803424712,0.724613263,-3.7629873333,-0.8832530963,-0.0772152643,-0.0604524736,1.6076454106,-1.5237183549,-1.0277708109,2.757250642,-0.078382807,-2.0721337358,1.2774329446,-2.682609944,-0.7809919122,0.6998464794,1.7309189832,-2.6181580105,3.1788808002,1.955195434,3.3478652828,-3.3746548516,-2.6465075835
biasActivation=0,1,0
[BASIC:ACTIVATION]
"org.encog.engine.network.activation.ActivationSigmoid"
"org.encog.engine.network.activation.ActivationSigmoid"
"org.encog.engine.network.activation.ActivationLinear"
